digraph Tree {
node [shape=box] ;
0 [label="Income <= 113.5\ngini = 0.174\nsamples = 5000\nvalue = [4520, 480]"] ;
1 [label="CCAvg <= 3.5\ngini = 0.041\nsamples = 4021\nvalue = [3937, 84]"] ;
0 -> 1 [labeldistance=2.5, labelangle=45, headlabel="True"] ;
9 [label="gini = 0.021\nsamples = 3820\nvalue = [3780, 40]"] ;
1 -> 9 ;
10 [label="Income <= 88.5\ngini = 0.342\nsamples = 201\nvalue = [157, 44]"] ;
1 -> 10 ;
11 [label="gini = 0.1\nsamples = 95\nvalue = [90, 5]"] ;
10 -> 11 ;
12 [label="Education <= 1.5\ngini = 0.465\nsamples = 106\nvalue = [67, 39]"] ;
10 -> 12 ;
13 [label="gini = 0.234\nsamples = 59\nvalue = [51, 8]"] ;
12 -> 13 ;
14 [label="Family <= 2.5\ngini = 0.449\nsamples = 47\nvalue = [16, 31]"] ;
12 -> 14 ;
15 [label="Education <= 2.5\ngini = 0.498\nsamples = 30\nvalue = [16, 14]"] ;
14 -> 15 ;
17 [label="gini = 0.0\nsamples = 7\nvalue = [0, 7]"] ;
15 -> 17 ;
18 [label="gini = 0.423\nsamples = 23\nvalue = [16, 7]"] ;
15 -> 18 ;
16 [label="gini = 0.0\nsamples = 17\nvalue = [0, 17]"] ;
14 -> 16 ;
2 [label="Education <= 1.5\ngini = 0.482\nsamples = 979\nvalue = [583, 396]"] ;
0 -> 2 [labeldistance=2.5, labelangle=-45, headlabel="False"] ;
3 [label="Family <= 2.5\ngini = 0.194\nsamples = 635\nvalue = [566, 69]"] ;
2 -> 3 ;
5 [label="gini = 0.0\nsamples = 566\nvalue = [566, 0]"] ;
3 -> 5 ;
6 [label="gini = 0.0\nsamples = 69\nvalue = [0, 69]"] ;
3 -> 6 ;
4 [label="Income <= 116.5\ngini = 0.094\nsamples = 344\nvalue = [17, 327]"] ;
2 -> 4 ;
7 [label="gini = 0.491\nsamples = 30\nvalue = [17, 13]"] ;
4 -> 7 ;
8 [label="gini = 0.0\nsamples = 314\nvalue = [0, 314]"] ;
4 -> 8 ;
}